tree
version=v3
num_class=1
num_tree_per_iteration=1
label_index=0
max_feature_idx=4
objective=binary sigmoid:1
feature_names=Column_0 Column_1 Column_2 Column_3 Column_4
feature_infos=[5.333333333333333:18.333333333333329] [1:12.666666666666666] [6:17.666666666666668] [5:44] [5:38.333333333333336]
tree_sizes=649 647 748 847 649 649 753 848 753 747

Tree=0
num_leaves=5
num_cat=0
split_feature=0 3 2 3
split_gain=5.40574 4.64439 7.46238 6.98444
threshold=14.500000000000002 22.500000000000004 11.500000000000002 17.500000000000004
decision_type=2 2 2 2
left_child=1 3 -3 -1
right_child=-2 2 -4 -5
leaf_value=-0.22627640631621615 -0.13230065316292389 -0.3075269088486477 -0.16619397442703987 -0.16559170339967505
leaf_weight=94.631896153092384 7.1653393954038611 13.342356115579607 5.1886940449476233 23.719744205474854
leaf_count=383 29 54 21 96
internal_value=-0.216971 -0.221403 -0.267954 -0.214114
internal_weight=0 136.883 18.5311 118.352
internal_count=583 554 75 479
is_linear=0
shrinkage=1


Tree=1
num_leaves=5
num_cat=0
split_feature=0 4 1 0
split_gain=4.93521 10.3756 5.0345 3.96058
threshold=7.8333333333333348 18.833333333333339 8.1666666666666696 14.500000000000002
decision_type=2 2 2 2
left_child=1 -1 3 -2
right_child=2 -3 -4 -5
leaf_value=-0.13067621281549541 0.0073276098498621049 0.035881914509115369 -0.064184566199515611 0.085010278752058799
leaf_weight=8.1432103812694532 112.56864427030087 6.9169735461473456 9.3907619267702085 6.9694581627845755
leaf_count=33 456 28 38 28
internal_value=0 -0.0541779 0.00631816 0.0118568
internal_weight=0 15.0602 128.929 119.538
internal_count=583 61 522 484
is_linear=0
shrinkage=0.1


Tree=2
num_leaves=6
num_cat=0
split_feature=0 4 4 4 3
split_gain=4.03728 8.59823 4.24646 6.10696 5.28595
threshold=7.8333333333333348 18.833333333333339 15.500000000000002 19.833333333333339 12.16666666666667
decision_type=2 2 2 2 2
left_child=1 -1 4 -4 -2
right_child=2 -3 3 -5 -6
leaf_value=-0.11996856723579928 -0.0020812239290514244 0.032175304705259491 -0.034285447773589238 0.017631899960236987 0.072982678229209563
leaf_weight=7.9907383024692518 19.529345288872719 6.94104965031147 41.519751310348511 49.870921656489372 18.053584083914757
leaf_count=33 79 28 168 202 73
internal_value=0 -0.0492444 0.00568139 -0.0059547 0.033977
internal_weight=0 14.9318 128.974 91.3907 37.5829
internal_count=583 61 522 370 152
is_linear=0
shrinkage=0.1


Tree=3
num_leaves=7
num_cat=0
split_feature=3 3 1 4 4 1
split_gain=3.59109 6.38733 6.16246 6.02696 5.89555 2.17465
threshold=22.500000000000004 20.166666666666668 6.166666666666667 24.166666666666668 20.500000000000004 5.8333333333333348
decision_type=2 2 2 2 2 2
left_child=1 4 -3 5 -1 -2
right_child=3 2 -4 -5 -6 -7
leaf_value=-0.01494704159888717 -0.045351020341472509 0.14780942629456381 -0.0030532866950453664 0.02112227959812742 0.035992073882302904 -0.13539774392751924
leaf_weight=81.76574495434761 5.379809573292734 5.9610053896903974 4.9610887914896011 8.8841868042945844 31.46365612745285 5.3481627255678177
leaf_count=332 22 24 20 36 127 22
internal_value=0 0.00625229 0.0792838 -0.0397944 -0.000792319 -0.0902416
internal_weight=0 124.151 10.9221 19.6122 113.229 10.728
internal_count=583 503 44 80 459 44
is_linear=0
shrinkage=0.1


Tree=4
num_leaves=5
num_cat=0
split_feature=0 4 1 2
split_gain=3.26871 6.84062 4.18468 3.7024
threshold=7.8333333333333348 18.833333333333339 8.1666666666666696 11.500000000000002
decision_type=2 2 2 2
left_child=1 -1 3 -2
right_child=2 -3 -4 -5
leaf_value=-0.10931798319863967 -0.00030716914280331836 0.027284344932401262 -0.059472011658833368 0.039872468732035732
leaf_weight=7.7499932497739774 88.61641526222229 6.9563798904418945 9.3220358788967115 30.940948143601418
leaf_count=33 359 28 38 125
internal_value=0 -0.0447026 0.00505955 0.0100912
internal_weight=0 14.7064 128.879 119.557
internal_count=583 61 522 484
is_linear=0
shrinkage=0.1


Tree=5
num_leaves=5
num_cat=0
split_feature=0 3 2 3
split_gain=3.10171 2.95483 5.8443 4.68337
threshold=14.500000000000002 22.500000000000004 11.500000000000002 17.500000000000004
decision_type=2 2 2 2
left_child=1 3 -3 -1
right_child=-2 2 -4 -5
leaf_value=-0.0076798985131703015 0.06374495177930288 -0.076811009101221434 0.048905393868967223 0.041944256761061928
leaf_weight=94.173088788986206 7.2377388626337043 12.980525940656664 5.1709183305501929 23.831000983715057
leaf_count=383 29 54 21 96
internal_value=0 -0.00343598 -0.0409974 0.00234173
internal_weight=0 136.156 18.1514 118.004
internal_count=583 554 75 479
is_linear=0
shrinkage=0.1


Tree=6
num_leaves=6
num_cat=0
split_feature=1 4 0 0 3
split_gain=2.78473 3.78461 5.49177 5.34659 1.47507
threshold=8.1666666666666696 19.833333333333339 7.8333333333333348 13.500000000000002 22.500000000000004
decision_type=2 2 2 2 2
left_child=1 2 -1 -3 -2
right_child=4 3 -4 -5 -6
leaf_value=-0.085913284225199907 -0.080967424554169332 0.015244049612759185 -0.00019877939984254563 0.12510706406773195 -0.0070477270476045064
leaf_weight=8.2709230631589872 6.1438611447811109 41.32259076833725 77.66291569173336 4.9615634232759467 4.815414696931839
leaf_count=36 25 167 315 20 20
internal_value=0 0.00396792 -0.00844859 0.0270211 -0.0484877
internal_weight=0 132.218 85.9338 46.2842 10.9593
internal_count=583 538 351 187 45
is_linear=0
shrinkage=0.1


Tree=7
num_leaves=7
num_cat=0
split_feature=3 3 4 4 4 1
split_gain=2.46987 4.66132 5.21081 4.3665 4.09027 1.85771
threshold=22.500000000000004 20.166666666666668 19.166666666666668 24.166666666666668 20.500000000000004 5.8333333333333348
decision_type=2 2 2 2 2 2
left_child=1 4 -3 5 -1 -2
right_child=3 2 -4 -5 -6 -7
leaf_value=-0.01277111537659721 -0.035824247437110962 0.13352689226052034 -0.0047320149392118711 0.018184621861360946 0.029664056857555788 -0.1205015589933139
leaf_weight=81.272039189934731 5.270531430840494 5.7077912241220456 5.2180036306381226 8.8503996878862363 31.525188833475113 5.0958223193883896
leaf_count=332 22 23 21 36 127 22
internal_value=0 0.00512986 0.0674964 -0.0334045 -0.0009111 -0.0774493
internal_weight=0 123.723 10.9258 19.2168 112.797 10.3664
internal_count=583 503 44 80 459 44
is_linear=0
shrinkage=0.1


Tree=8
num_leaves=6
num_cat=0
split_feature=1 3 3 4 3
split_gain=2.33925 2.92854 6.32611 4.1766 1.38559
threshold=8.1666666666666696 22.500000000000004 17.500000000000004 24.166666666666668 22.500000000000004
decision_type=2 2 2 2 2
left_child=1 2 -1 -3 -2
right_child=4 3 -4 -5 -6
leaf_value=-0.0025059037992156735 -0.076215944418771664 -0.081675778931291285 0.056361746725359312 0.029781398247709541 -0.0042658409338288189
leaf_weight=94.923410445451736 6.0995673239231092 8.8188780695199949 22.601653516292572 5.4335203617811194 4.7693465203046799
leaf_count=387 25 38 91 22 20
internal_value=0 0.00362375 0.00881514 -0.0391843 -0.0446438
internal_weight=0 131.777 117.525 14.2524 10.8689
internal_count=583 538 478 60 45
is_linear=0
shrinkage=0.1


Tree=9
num_leaves=6
num_cat=0
split_feature=2 3 3 1 4
split_gain=2.26583 3.90371 4.82671 3.98696 2.8665
threshold=13.500000000000002 22.500000000000004 17.500000000000004 5.5000000000000009 20.833333333333339
decision_type=2 2 2 2 2
left_child=1 2 -1 -3 -2
right_child=4 3 -4 -5 -6
leaf_value=-0.0082980121797640791 -0.018679139892129704 0.023282082117851759 0.041852983352990529 -0.082289131531738113 0.077445637117706967
leaf_weight=88.162507116794586 5.1061870753765088 5.2055349349975613 24.530431196093559 11.436430498957632 7.90497787296772
leaf_count=360 21 22 99 49 32
internal_value=0 -0.00405768 0.0026186 -0.0492669 0.0397218
internal_weight=0 129.335 112.693 16.642 13.0112
internal_count=583 530 459 71 53
is_linear=0
shrinkage=0.1


end of trees

feature_importances:
Column_3=15
Column_4=13
Column_0=8
Column_1=8
Column_2=4

parameters:
[boosting: gbdt]
[objective: binary]
[metric: auc]
[tree_learner: serial]
[device_type: cpu]
[linear_tree: 0]
[data: ]
[valid: ]
[num_iterations: 10]
[learning_rate: 0.1]
[num_leaves: 8]
[num_threads: 0]
[deterministic: 0]
[force_col_wise: 0]
[force_row_wise: 0]
[histogram_pool_size: -1]
[max_depth: 3]
[min_data_in_leaf: 20]
[min_sum_hessian_in_leaf: 0.001]
[bagging_fraction: 1]
[pos_bagging_fraction: 1]
[neg_bagging_fraction: 1]
[bagging_freq: 0]
[bagging_seed: 3]
[feature_fraction: 1]
[feature_fraction_bynode: 1]
[feature_fraction_seed: 2]
[extra_trees: 0]
[extra_seed: 6]
[early_stopping_round: 0]
[first_metric_only: 0]
[max_delta_step: 0]
[lambda_l1: 0]
[lambda_l2: 0]
[linear_lambda: 0]
[min_gain_to_split: 0]
[drop_rate: 0.1]
[max_drop: 50]
[skip_drop: 0.5]
[xgboost_dart_mode: 0]
[uniform_drop: 0]
[drop_seed: 4]
[top_rate: 0.2]
[other_rate: 0.1]
[min_data_per_group: 100]
[max_cat_threshold: 32]
[cat_l2: 10]
[cat_smooth: 10]
[max_cat_to_onehot: 4]
[top_k: 20]
[monotone_constraints: ]
[monotone_constraints_method: basic]
[monotone_penalty: 0]
[feature_contri: ]
[forcedsplits_filename: ]
[refit_decay_rate: 0.9]
[cegb_tradeoff: 1]
[cegb_penalty_split: 0]
[cegb_penalty_feature_lazy: ]
[cegb_penalty_feature_coupled: ]
[path_smooth: 0]
[interaction_constraints: ]
[verbosity: -1]
[saved_feature_importance_type: 0]
[max_bin: 255]
[max_bin_by_feature: ]
[min_data_in_bin: 3]
[bin_construct_sample_cnt: 200000]
[data_random_seed: 1]
[is_enable_sparse: 1]
[enable_bundle: 1]
[use_missing: 1]
[zero_as_missing: 0]
[feature_pre_filter: 1]
[pre_partition: 0]
[two_round: 0]
[header: 0]
[label_column: ]
[weight_column: ]
[group_column: ]
[ignore_column: ]
[categorical_feature: ]
[forcedbins_filename: ]
[objective_seed: 5]
[num_class: 1]
[is_unbalance: 0]
[scale_pos_weight: 1]
[sigmoid: 1]
[boost_from_average: 1]
[reg_sqrt: 0]
[alpha: 0.9]
[fair_c: 1]
[poisson_max_delta_step: 0.7]
[tweedie_variance_power: 1.5]
[lambdarank_truncation_level: 30]
[lambdarank_norm: 1]
[label_gain: ]
[eval_at: ]
[multi_error_top_k: 1]
[auc_mu_weights: ]
[num_machines: 1]
[local_listen_port: 12400]
[time_out: 120]
[machine_list_filename: ]
[machines: ]
[gpu_platform_id: -1]
[gpu_device_id: -1]
[gpu_use_dp: 0]
[num_gpu: 1]

end of parameters

pandas_categorical:null
